f_id,2,3,4,5,6,7,8,9,10,11,12,13,14,15,16,17,18,19,20,21,22,23,24,25,26,27,28,29,30,1
1,0.5340715427931297,0.39875553623975635,0.13720799669415518,-0.647355266852367,-0.7650195528581483,-0.06944124179002009,-0.4188348359122056,-0.43377212895259776,-0.4402837234245738,-0.46510057874834976,-0.6088740727810471,-0.16754675376546935,-0.2573201343791529,0.09894028892508921,-0.7602896808399899,0.44347969193220305,0.5655824474688399,0.15672771013504194,0.6358212508477704,0.6223156109385578,0.060354444893208625,-0.05936134946474447,-0.24445414665211906,-0.5141891681057555,-0.28391905681019214,-0.10992719463667844,-0.20622669207963717,0.36148446022790603,0.3930913125538895,
2,,0.31281088096626686,-0.37333802361152735,-0.25821117447001396,-0.3124036741024576,-0.2797849230106446,-0.38148166410182816,-0.3911692579911312,-0.27200804055294525,-0.2718612783413277,-0.2624526033477026,-0.24575060547012706,-0.31695054485530516,-0.22921457620380625,-0.263201615024665,0.2922816528286867,0.7867471966038079,-0.2754761761094058,0.9060383299363188,0.5886547690189121,-0.24688597876372165,-0.49041635897090563,-0.3174118866184632,-0.3751510719797768,-0.48040092305375137,-0.45814740475642535,-0.24826942391633677,-0.09406128664994817,-0.252262959757783,0.7791757998747912
3,0.08834317973556938,,-0.2815982315357899,-0.4128207843780942,-0.5400770118682812,-0.552505233298821,-0.7526785101943905,-0.7286661139558499,-0.10428690641064686,-0.1453935994197213,-0.32297200619348443,-0.6837658406142495,-0.6844976975364911,0.16658091087185212,-0.5012473671793256,0.9491124110257285,0.6995024795218716,-0.013357891192854243,0.787730731479936,0.7255309752744995,0.3552883307802246,-0.33775886638925545,-0.5189371853610463,-0.06339741914920527,-0.5609880083388119,-0.09866575122726062,-0.0044580873470061455,0.6947989549979183,0.6917669282673452,0.5138643841852407
4,-0.21718425445331424,-0.3598118206162422,,-0.32957283398735293,-0.19079827123529625,0.878986475103609,0.4804399833831745,0.4659469455151095,-0.35711749897292977,-0.3331474840703643,-0.3790713750150647,0.724555338777047,0.6959372888758545,0.27945583047549505,-0.25473041018156484,-0.29994230208671446,-0.44544606181333757,0.15197697621686324,-0.5173824107896849,-0.32576408449851857,-0.2495911325437643,0.8154214510209263,0.6087369849434842,-0.09897669090049965,0.8152902970590594,0.5328012429190374,-0.13939120479036715,-0.22260390107537065,0.07917495233604632,0.25502322817292034
5,-0.4015109177833336,-0.5181533573904198,-0.21531977354898135,,0.970692626220281,0.11587318945458014,0.5688334928024833,0.5585748680715736,0.8838441381759407,0.8821015745653953,0.9873298989429814,0.27604273195610396,0.27409895655273386,-0.6093896707769062,0.9846981302143837,-0.5649083484948099,-0.5137023979665578,-0.0657909562800505,-0.5688985355183793,-0.6536193185846202,-0.31451734892457117,0.11560718964828898,0.15492802760558222,0.6005245053112455,0.3321051869762396,0.2469784903069635,0.30010707596856745,-0.38302943155583824,-0.5762445526688702,-0.7355760472711568
6,-0.43653961045336676,-0.5668792379359497,-0.11893428418836938,0.9726543234120494,,0.06235691563678303,0.525570951670243,0.5405926561749845,0.8010799220733082,0.7938665505675834,0.9571149911256212,0.22788844530003183,0.35319142044251106,-0.26300578738176794,0.9702494696142837,-0.6206637624290869,-0.47406159437887796,-0.11525629973878071,-0.6310226175476004,-0.7336764639599664,-0.13246556923033848,0.1818087055182942,0.03982033820940267,0.33079770310869017,0.3239310570968017,0.010480550017035628,0.49288312172550586,-0.4478397005849204,-0.5805568078373502,-0.831467729191266
7,-0.11649100567114701,-0.6976989262718851,0.8578559088937263,0.003764767669542479,0.12790519126945,,0.6955492719435615,0.680298941257416,-0.31484656955922796,-0.28598115175771777,-0.11636038711966878,0.8874961637297896,0.8524350512603706,-0.02645983681283748,0.10542530390527416,-0.6449211754346553,-0.6954065022253393,0.3070409946315915,-0.6668705516419919,-0.5011838692881048,-0.42178038345461144,0.7874266748961909,0.7161389706824037,0.12092987962142443,0.8466432218083917,0.5176078689469465,-0.15751462086100898,-0.5328238656956124,-0.36686839201417265,-0.028490041517452047
8,-0.3347111076886422,-0.8436861229943298,0.5301125912656689,0.4748115813580671,0.6544016156778292,0.8479960763118214,,0.978089347005876,0.20933844857522443,0.24173331514187446,0.40183993559597186,0.859716054232726,0.8794529606579625,-0.2857097747543915,0.5411855749675121,-0.7613460256195888,-0.7749386148963673,0.045030682357666385,-0.8566291513953539,-0.6969455101771111,-0.4360863747534647,0.6065970552126478,0.7898968709984902,0.38478146891515563,0.7708150581921595,0.47162801753878014,-0.005542235427125508,-0.5460580602680483,-0.5160505778341209,-0.5814786156696217
9,-0.306420226721807,-0.7242224676792166,0.5377344450026571,0.2528162769658826,0.4767416671856437,0.7958272148125531,0.9791606605548872,,-0.06602225459908362,-0.011725970185519019,0.1907810841817349,0.8694557822744987,0.943481289191488,-0.07770926367632014,0.3340333749636921,-0.5750801913122494,-0.7492367861558513,0.011542168415044074,-0.782509233590365,-0.6363490554195275,-0.42898460034959274,0.6371324442701357,0.6898292392538454,0.4681112681280982,0.6481204221598248,0.3166377019250397,-0.1999124617181074,-0.5275130092020297,-0.3853270808107321,-0.3994388524807171
10,-0.36082535815824635,-0.10837267867641431,-0.3929433392506194,0.9216148547391322,0.8511587435653055,-0.49096385268549003,-0.060768795319701585,-0.03652521775534345,,0.9942956594835778,0.9440393481838364,-0.43221467482930986,-0.29358309718847964,-0.16942582169245335,0.8851619196989563,-0.3064604180764732,0.11540990887710323,-0.23622033196840708,-0.26400563329972826,-0.48610798750268636,0.011707466300597935,-0.14579226343432428,-0.5004045136275499,-0.06832570241962022,-0.06221392152494376,-0.0997543881152978,0.5167299664765973,-0.09583037241262549,-0.3363935793333517,-0.6270795109728684
11,-0.36153628928919535,-0.16792096381439592,-0.35996109926455144,0.9244976632572884,0.8712099677256552,-0.49096804148445083,-0.04429717348583595,0.012067538650877285,0.9915985484868504,,0.9451993126551209,-0.4145523228906014,-0.2537569437720517,-0.06368749229546311,0.8900054366736214,-0.3860292974678279,0.11173908567398627,-0.21510175991742875,-0.31257760439144744,-0.5503581717511572,0.0691941393039619,-0.08963381361636014,-0.45477298860709636,-0.11212103407044594,-0.059169243731169274,-0.12442909556349768,0.47706093742789535,-0.1838415132085296,-0.3716038517697682,-0.6641362878062624
12,-0.3960369842594078,-0.22348825567629227,-0.4487896650623373,0.9891884789889387,0.9446263285674988,-0.3810027762207133,0.12351498515773973,0.15378370736270086,0.9300301344880697,0.924831646410052,,-0.22981798691243815,-0.13945375850337927,-0.3019439420359693,0.9596059987216271,-0.3935011423906418,-0.115079878844625,-0.1844457523607621,-0.3453704976360039,-0.5272206403275428,0.04027009693060679,-0.16191016287850957,-0.30011878454264806,0.2138536309212934,-0.036030775628365985,-0.052229146357618106,0.5585197291604508,-0.19849619324508816,-0.4365490496407969,-0.681711862831722
13,-0.17100336596245902,-0.731453026866651,0.7318178138618305,0.00785156013138577,0.20502260573600517,0.9452075130515653,0.8370680730094812,0.8225606733454853,-0.31134755060434416,-0.2625184312505753,-0.08813309845217754,,0.9248659377799809,-0.027519634271464755,0.0878634511670846,-0.6461022010028912,-0.7471441828796868,0.21466762316381682,-0.6880327104903581,-0.4216628981548052,-0.30555869663437374,0.7106865500849963,0.7343002207566846,0.1961517900111459,0.6901205058910684,0.38921471565768206,-0.15301524784229636,-0.3994948442043258,-0.2115458691851,-0.07418929177624256
14,-0.15095072183890035,-0.6445469107174469,0.4362592289774432,0.2446446762305693,0.4324918330377574,0.8382046241925286,0.8659888272796769,0.9048767067102876,-0.3478971995407194,-0.3242381127374818,0.18267611438610099,0.9443171215498817,,-0.11374253399158696,0.3300223609832351,-0.5518092818193088,-0.6495699942433164,0.007900959951758213,-0.6644139790131416,-0.5035575245823598,-0.4161598345369333,0.39648746574969373,0.4824194285007586,0.4285970442076352,0.3425131673975337,0.07998967723755024,-0.22868910708904555,-0.5448722807690343,-0.458071495592856,-0.20890406599153488
15,0.05221433816752785,0.4209678588523452,0.31694430889652336,-0.7182829583474861,-0.6232082763139046,-0.08267389229812427,-0.2545724051427223,-0.2463143554631264,-0.4698822983058266,-0.4627603813120986,-0.6502194165860247,-0.28014410273468426,-0.1115608219521369,,-0.6439219140134202,0.5067028539460178,0.5372951993824441,-0.012329238531870734,0.33167494098048633,0.4742606397791236,0.6251460536983048,-0.04975175759339523,0.08144933658066478,-0.4172941483071442,0.024886001395218238,-0.14913932470013025,-0.12539584625279399,0.46425727606346656,0.5780038419694024,0.3813895265191236
16,-0.3928556601508817,-0.5087019716835925,-0.13916120359076456,0.9747383940318171,0.97274932551369,0.02881691478788817,0.4320062006188896,0.39889986938365196,0.8711745541233024,0.8216853225899402,0.9595296588331874,0.1328474145614137,0.253745210885853,-0.2771452745026015,,-0.5765121068003001,-0.45168008731354603,-0.1193781304090844,-0.5731275388172894,-0.7740511962402339,-0.13861533514748547,0.05592722013968754,-0.12227014301923922,0.32002514053017006,0.42804765454250315,-0.03686426189619674,0.40264262886731106,-0.4990804724267919,-0.649954844482366,-0.8586410920181093
17,0.06452081906085727,0.9423190344925355,-0.29085381764328355,-0.31918325898107547,-0.4161560907026085,-0.5606169657097628,-0.6725338440144426,-0.6194750504730906,-0.04127541434923421,-0.07167193855175213,-0.22482231041676215,-0.6669717652269713,-0.5905529416749191,0.23448851736715093,-0.39907247896375164,,0.6789439954084797,-0.0736724243503093,0.7468542020087947,0.5382149060351802,0.3313752488276902,-0.3551769029716416,-0.5468862179768124,-0.023846325723250628,-0.4525096716044459,-0.18715271248063625,0.017660117011047194,0.5205422593706032,0.4722838977790058,0.3340550539384183
18,0.1866376283113942,0.858189889386158,-0.11457731728332976,-0.6376532050675885,-0.6670440910210536,-0.6611470883259352,-0.728097590964953,-0.697728285168624,-0.11798193925107947,-0.13171348122628124,-0.5298851377972782,-0.7972515261643525,-0.6908142481651853,0.613728739462195,-0.6889013060013944,0.8585045157361565,,0.06091099844067693,0.89336948497616,0.7989794625545343,0.44939117521796423,-0.36282954132070033,-0.5702678512725696,-0.4705251784173392,-0.5398649511915141,-0.27502409758324586,-0.12164982075230668,0.8172415864872554,0.7475574792320349,0.6326295477378879
19,-0.2852341665273026,-0.07178615256123466,0.2315797563652987,-0.1163337903735071,-0.10894864820381889,0.2729387958869802,0.12317362175304547,0.07665530356003791,-0.2033786601802321,-0.1816116313117908,-0.16772512101622072,0.3022024776515453,0.14080608871924327,0.03810380311528694,-0.10467633852706815,-0.04744223853603802,-0.00679129994293759,,-0.09944421883210319,0.15608518771394186,0.5011266922747807,0.2990255820841621,0.25760705604429557,0.06546921392650895,0.20840169805299902,0.3369078363272766,-0.09071354761411676,0.0028982109762972774,0.06345910731479354,0.07359032031439294
20,0.677750934923312,0.771151968978691,-0.4746186231819607,-0.55031816294857,-0.6910094129741997,-0.6786924373024075,-0.8216176814797747,-0.8042934882152601,-0.35459033522027483,-0.39641355091223573,-0.49973301354006994,-0.7308868092337188,-0.7322901121451144,0.19067525026875132,-0.6138946649282384,0.7716856346443316,0.7873660793295403,-0.1376159063110154,,0.7146074522080014,0.32647194595045703,-0.6619892736105957,-0.6492243155069044,-0.5166056969276158,-0.7439434216166831,-0.4783243933583332,-0.1444902791876279,0.45886164358824777,0.37057311292689565,0.7918639284378912
21,0.42707907190128447,0.768658171050844,-0.12104968024308027,-0.7482841472031043,-0.8246739267181746,-0.44361280264985914,-0.6884431789966068,-0.7255610085857258,-0.48931350190611167,-0.514477104002464,-0.688388852555958,-0.5756823028191358,-0.5990969339145593,0.5312009996112441,-0.8004417635094239,0.7657633197357562,0.7702210656125603,0.09786852982028427,0.7091827443118528,,0.5544756196880767,-0.46850495434321204,-0.2998128716809567,-0.4392278917301551,-0.5553445925370144,-0.249644662525502,-0.18030041771760819,0.8406009415426802,0.8463778530997476,0.8169360323621714
22,-0.14960013494569147,0.474968849731058,-0.12043569539693255,-0.3416946178442486,-0.3956211619334702,-0.37895467527196836,-0.460146414801327,-0.4898026450124473,-0.2759872280518043,-0.3128716193535528,-0.3324273693008677,-0.378580557062576,-0.4079056543167414,0.7746878470607531,-0.17259380856569728,0.4474295029285815,0.2818586650537014,0.5807545000121859,0.416903707850507,0.48318519745888455,,-0.2649412481654867,-0.11053511446470421,-0.18200430773297382,0.03253054408491529,0.20120474552957246,-0.015027766737928605,0.2820607048174779,0.4291659215010406,0.10147564851866808
23,-0.44497145319926146,-0.5439766087282258,0.7700200633141142,0.04556072685518775,0.2045910063703229,0.8034419915618358,0.6816306377919247,0.6933117037082077,-0.11410450770859448,-0.07380875647804763,-0.049518226057760684,0.7768825017682581,0.7525817702528671,0.048113257824338285,0.12399015550847359,-0.4453986075401086,-0.6780611605144395,0.26268116633112126,-0.7109744622786913,-0.4821836038333154,-0.23461701552191583,,0.8165743854504712,0.3567524113307263,0.7438398083170114,0.5638230804292212,-0.08321693197527713,-0.38105935642916244,-0.15158007614205427,-0.245010946162606
24,-0.2918914444038281,-0.71817920928737,0.5823471573878859,0.1529021689492015,0.3441249887641926,0.7527021288735595,0.7610247988505449,0.804233522218803,-0.093532505524206,0.006194069233351307,0.05860466652744034,0.7935144750502952,0.7611725228764405,0.03527418166112284,0.24187800639769286,-0.6275404284097748,-0.7107617144459117,0.19911399049245893,-0.7367427067155083,-0.5819968207329875,-0.19441016944340817,0.835775692969958,,0.4188648755118316,0.7400608086074147,0.5429987993462055,-0.011237393942147733,-0.5585779950781644,-0.32548892514737027,-0.5037677397260811
25,-0.5184824550696092,-0.42038848430570086,-0.20375961731312664,0.7603706690805062,0.8215833901435977,0.26643006683365844,0.6148722308304984,0.7165543866442832,0.28373777956034396,0.28824099367559874,0.7452881005402189,0.5059760846722771,0.5811573999288916,-0.49564530693945286,0.7771315644618456,-0.4498363747036118,-0.6141597515842601,-0.1303956116260363,-0.5958733260866627,-0.6037045861461765,-0.2832876567370066,0.10128451130745975,0.2737086868263485,,0.22917535284434676,0.14885524017568907,0.17771662811529076,-0.580555418533979,-0.5807882747910664,-0.749664511262419
26,-0.28119351928725056,-0.5740339678706077,0.8044490688459093,0.03001698579141865,0.14367407869269,0.7376382453629616,0.49749457309651746,0.41703576921594565,-0.03743707056731149,-0.017417678246287815,-0.056753985148359165,0.61049828518645,0.5036422451255502,0.13545962965660263,0.149210710056075,-0.4755865441440723,-0.6193370439531178,0.2360617273753054,-0.6209384395069604,-0.47868704387249683,-0.0995662091142071,0.5387706971988535,0.6220315164388525,0.1314042219756848,,0.6356634226104022,-0.009661747475539606,-0.27258441673552536,-0.31975107768297195,-0.4337215622600814
27,-0.42319861779572276,-0.2356704572449424,0.2523764887805986,0.15657223682132337,0.17620133839992702,0.25381519831067423,0.17660596693512276,0.3569637414106732,0.10684138797297871,0.2916660640964901,0.11709614215260933,0.38456066083598217,0.1459904922278118,-0.23466321131845858,0.05374865798017048,-0.258861173051524,-0.4532197066639725,0.36039297010967053,-0.4296213881476072,-0.3552301128977069,-0.10356100699382753,0.5825387520319775,0.6270318453285244,0.4288409819477286,0.4603518970892686,,0.2059726260744258,-0.08770462329917073,0.12119340730973482,-0.262817274762295
28,-0.032259366697155345,-0.02433297215560737,-0.07034332802952914,-0.04060950139653974,-0.05778232473926215,-0.08412298644919347,-0.08371105720210781,-0.07685359768765454,-0.06371100251183481,-0.06905901407518145,-0.042157923805606234,-0.05892857837355581,-0.06942710232062077,0.47925954668474846,-0.009476665042630117,0.009893345538219411,-0.05077383739732433,-0.03979841349484925,-0.022654944779933572,-0.02693897578788551,0.18954407351969227,-0.09244237425686141,0.04113247991907798,0.014700166072843524,0.06118803521264826,0.059029501969396936,,0.04395337519099929,0.10904408985100589,-0.044696337758832305
29,-0.10404519916331267,0.5208220793083507,-0.11479390929709532,-0.22897810831858,-0.32511133616411625,-0.28792995049564807,-0.4474637032772013,-0.5486045476310295,0.12416043460000648,0.06974362382556809,-0.12725697542086079,-0.4162724791790666,-0.48824321993436914,0.06967750285639351,-0.35819388206609526,0.46744170151949715,0.5337682265008669,-0.024569731666824524,0.3131275747374893,0.5368320283192154,0.14363458066322665,-0.30611004290019217,-0.45521076505584546,-0.2784140355317162,-0.20383538046947036,0.1618569888943595,0.25479646497954067,,0.7501260961113267,0.3045201841477472
30,-0.22507437447636414,0.5711914885931477,0.05448414676642899,-0.4273200461276905,-0.4944035864518992,-0.20108947345765404,-0.3735779004714488,-0.4186055221289291,-0.08510520087738405,-0.08746944999964157,-0.3235752301945152,-0.3632575469042376,-0.3843563099055092,0.35705410875634547,-0.5114716258847594,0.4928242053781753,0.40508831600518913,0.04131529127383282,0.22059645433946873,0.6232547969527878,0.28369705554955793,0.062706469957579,-0.14238336988957778,-0.23070910667038724,-0.2512101492233114,0.20334738674912367,0.17708134887126392,0.8059116610180462,,0.42521288609731556
