f_id,2,3,4,5,6,7,8,9,10,11,12,13,14,15,16,17,18,19,20,21,22,23,24,25,26,27,28,29,30,1
1,0.3627540253370921,0.33618033402006353,0.45259960389101606,-0.6522373564902983,-0.6777461799390747,0.1349466963959569,-0.39252303896048835,-0.37921553624495186,-0.3643180202535876,-0.3207345288751773,-0.6511204728723579,-0.0024332724004048067,-0.25483515761963416,0.10713249907038813,-0.7139659148205959,0.35366624412610537,0.3660849417101236,0.4499657432756303,0.5140274154676832,0.3748861418220064,0.2950671238880126,0.4776897046069677,0.17692064737362556,-0.2862771015101988,0.06882594252877128,0.3284622039865849,-0.15198194688141697,0.3957594468684924,0.4158365060449989,
2,,0.3082601661466968,-0.08668194404015761,-0.14728360355078784,-0.16516351534581575,-0.0532145404158848,-0.13568208095426648,-0.1255594651590879,-0.1398611767731497,-0.13605286700272323,-0.1504126588297403,-0.04564955154362682,-0.06733092760523562,-0.060900360132185805,-0.1491847752819,0.1802670471555038,0.12067394174495638,-0.09301038976603593,0.6533233133266559,0.30235361486350487,-0.13413229171397445,-0.12185407082830046,-0.04983299190129209,-0.12317529714471198,-0.16543464761496884,-0.12899878194272718,-0.08532660626926036,0.10823798368560433,0.3017617810426654,0.3787785014582721
3,-0.011334310530541902,,-0.12951920653048354,-0.3151764880755459,-0.4147292082822198,-0.3294505677667232,-0.5830173338260816,-0.5427487234494397,-0.12410688659516533,-0.15850941976531696,-0.29118584247320833,-0.45508631229556284,-0.4961460874307395,-0.017925290851111386,-0.32742901107028244,0.9449445917494705,0.40496362364326033,0.17356580787419162,0.8872907550466868,0.3776283711846059,0.33682701759267786,-0.019659173619141157,-0.13646464690415638,0.2482070721012507,-0.18801821203606384,0.0036809727923707847,-0.0862762211366761,0.25217999377975164,0.2996504460521383,0.38143319243410145
4,0.022552694025976816,-0.2318353503731989,,-0.4062531210452791,-0.33742427297252653,0.7930456685594839,0.28240908185290015,0.21547045423569122,-0.38219867408053343,-0.39267824759070313,-0.4595013603765059,0.6051729382316385,0.5101199217428105,0.0546856570684392,-0.35749611440579776,-0.10723945768855447,-0.35903085113120903,0.054253030283050285,-0.2861054374799046,-0.059594002336060825,-0.3231551648299167,0.5688281313581708,0.4440149262350581,-0.06454844735844079,0.7111643473198782,0.4923114389062142,-0.1647227650178118,0.15570871638903272,0.12435236098457614,0.3927520611074906
5,-0.36699529116807206,-0.5010766034715672,-0.39204386219765675,,0.979752825637541,-0.25151804107408715,0.40271782630362196,0.42697850332226994,0.8592547452408936,0.8456678453874441,0.9900610998685545,-0.05778628760393101,0.15424519768292777,-0.2232073439999338,0.9825472323767381,-0.6257588245731847,-0.16579579489980123,-0.2660153943098096,-0.4893941614156856,-0.670283650773781,-0.14493485861140543,-0.13052456386065803,-0.4296917708267023,0.025480009981544205,0.02978831037424734,-0.2808360831285588,0.3612923553307722,-0.6363010157632396,-0.7287980464774972,-0.758729596222341
6,-0.3285513257636974,-0.3340860072215901,-0.5177505110275886,0.9672796807159986,,-0.3689870852224635,0.3085633497806741,0.37089568045618226,0.7046383211756715,0.6930651015445661,0.963124987578343,-0.1301168077562711,0.14775738878569866,-0.07510029654313644,0.9678646670917369,-0.45218941613424635,-0.03736732810079069,-0.3931639015511872,-0.3353569875784628,-0.5814985577910325,-0.11565342094165576,-0.45103899246927437,-0.5700595531553656,0.08739421577677642,-0.2013276319092665,-0.4714037311509425,0.20102985471353252,-0.4025561281140193,-0.6291931313494747,-0.7154761901991575
7,0.12141157172431272,-0.21358857813624121,0.8601897968406178,-0.5627722560133184,-0.44739676684928664,,0.49436012872222657,0.43771758319521825,-0.6849222977665421,-0.6894408628868294,-0.6200273852169738,0.8196440512852529,0.6825904847998272,-0.2428269619250878,-0.5148432813215791,-0.03611373299212195,-0.532790918230909,0.23886168240541528,-0.27328325170793644,0.20201859939331857,-0.3218752397050215,0.601150591291504,0.7318222463554818,0.36891657147692114,0.5899818556703184,0.6231687388107356,-0.37218091490868144,0.33332542640322027,0.34795876014634364,0.37555463468125483
8,-0.22296701193880897,-0.6711313320506034,0.18754864565436147,0.3860621293798807,0.5384293452175154,0.68718442102994,,0.9498247925764145,-0.04023958551191842,-0.047275784103130825,0.3350950554707004,0.7614320687728194,0.848728827447579,-0.39267902297276436,0.41650037571498233,-0.5368555828521195,-0.6772185316082973,-0.18825773829294845,-0.6942138434882119,-0.42597822016634423,-0.5029062725107143,0.12419793177730554,0.35784679683264764,0.4490389382970412,0.34894897866977725,0.12079776250657048,-0.17053182851060011,-0.3216530510597928,-0.36869361889651,-0.4156035984003801
9,-0.16162542503540944,-0.637983044639828,0.18041521594863597,0.3421591148651819,0.5182818745321397,0.6423103119397612,0.9418240873084697,,-0.12240476593286576,-0.07561090576259621,0.29007413082186007,0.7952248656453551,0.8849834054674403,-0.35637779677014025,0.3585848443814128,-0.5120363479747816,-0.6405592278813761,-0.1807715234301761,-0.6906143789550794,-0.43874485004251573,-0.5329991503949896,0.26140670175500347,0.4173641829271624,0.5201360467733651,0.1464640493961411,0.12979323678150445,-0.1885367244521503,-0.4857471036515888,-0.40559827658951164,-0.36763054088810154
10,-0.2966419283684514,-0.2254007513080638,-0.37492489151042485,0.8673887586054283,0.7822014661416941,-0.5147692702855227,0.015119868179767737,-0.016245145770973135,,0.9857560944835726,0.8867784775367393,-0.4595725942714015,-0.3023949791941394,-0.01559051646131926,0.8409095135269989,-0.366270474007218,0.12008197013629762,-0.302073737858364,-0.23882912249595578,-0.5207054702410254,-0.038895511934507576,-0.18272533676695146,-0.4934472975911395,-0.27250690435221414,0.11417547644215398,-0.2500032111120136,0.429359207978977,-0.3542511876507948,-0.471088870190981,-0.6264424460736979
11,-0.24898214505730887,-0.24749451661168198,-0.4477745156680508,0.93730496911194,0.8831630898816258,-0.5929643800885813,0.09474513289657438,0.09399548927461099,0.994965411044376,,0.9506561256348637,-0.5240533290434937,-0.32934598123874936,0.02827088991042337,0.9142952111851597,-0.39641988804443473,0.23127028910328973,-0.3111235978951785,-0.21725181214340372,-0.5574731350168372,-0.0076586541530567764,-0.22767554663305667,-0.6058090209569722,-0.3374374374392377,-0.06439633720354498,-0.39525934342601565,0.2228793894562997,-0.531101687184139,-0.6004430607282214,-0.6307149828290914
12,-0.3437058930530723,-0.2014971352109447,-0.5822630075716364,0.9932532858072075,0.9558955206735322,-0.5500282107558601,0.22631024549453893,0.24132922046073368,0.8782266476657419,0.8693522601060847,,-0.38559287296353206,-0.14903059544519648,-0.09462517137473103,0.9761538362530346,-0.3768466622997453,0.11170970116611101,-0.349532493992035,-0.22395088623308168,-0.5580127615438166,-0.044294557008559776,-0.4464871332067393,-0.6513780921219015,-0.08254591967942093,-0.22120161617683176,-0.4559830993206866,0.26410569312213494,-0.5356074428787085,-0.6357125565725288,-0.6920809900055755
13,0.1085406240812481,-0.2848404083285425,0.5655248942054736,-0.37503749137078857,-0.2178488241764016,0.910383448873156,0.6567628807645489,0.6783177696653159,-0.6792543750993323,-0.6582671913639704,-0.40859270668757075,,0.8821448605283154,-0.36065776828398155,-0.3710139399005785,-0.10710336742598847,-0.6263685198520696,0.1496844245490503,-0.2913248055678155,0.14972073814235776,-0.3871337367407348,0.42300079427224124,0.5349889669064567,0.445035429188283,0.31962767792341185,0.4301900463758075,-0.3334383473513991,0.2998778014863571,0.27259608285514114,0.4398089282308453
14,-0.02581019413559993,-0.4941171474438659,0.5187226461670809,-0.035662603601431586,0.14973961487650544,0.7973745477096013,0.819797680779527,0.8672236012787583,-0.3941460890645856,-0.38984443067410135,-0.10672211916999408,0.886827311732234,,-0.17801085396534067,0.008217075273660779,-0.3630368086966598,-0.5429561987026859,-0.06848756055153649,-0.5810184425097478,-0.04756994914607948,-0.4926766862647509,0.465282296226603,0.5057510408325413,0.46524209986445775,0.3403580752518476,0.13161951995149912,-0.14193815210623795,-0.2537922309940457,-0.1811662209786742,-0.07506082154000304
15,-0.23950714780339433,0.04188650158506868,0.1547399564984847,-0.047816067362397296,-0.021976672396452734,-0.2071395691820661,-0.26973140451226496,-0.297900583440617,0.13681210850614556,0.09862668229393712,0.016195581958825755,-0.27440817668939355,-0.1145127472687757,,0.06814375983917464,-0.018595998879832987,0.22894790068661552,0.06593754748475134,-0.08831163893576499,0.049041371820858104,0.6207017136493203,0.04647275721625432,-0.06032659146370878,-0.2948025042058524,0.31045782221852825,-0.11552908117568661,0.39397114992468574,0.08231867801072967,0.11890416776241186,-0.1971329428547295
16,-0.3072143752485179,-0.2879495514282471,-0.49660817150906045,0.9812820154234347,0.9619186730858287,-0.36679867949226574,0.3877862820984166,0.37523511526246445,0.7508893962246576,0.7202946002924384,0.9739808201746719,-0.16555089740224838,0.10130010147404533,-0.00460432627786278,,-0.4039604797313425,-0.026973978114535724,-0.3625994544548825,-0.3165053543528702,-0.5904690953863834,-0.015554254182755356,-0.44917255225051056,-0.6181282974237399,0.05316750378018664,-0.11767276050490927,-0.48713639051075,0.15523158509295876,-0.5765491626187615,-0.6922775069320504,-0.7281430306572354
17,-0.022873217420188885,0.9443614626989555,-0.14699258963823514,-0.2778990819737952,-0.32360578159748443,-0.3677815623934202,-0.48871484043539515,-0.4124619718771576,-0.08238380494173936,-0.1015762647727736,-0.25931348350463956,-0.4329165205399059,-0.4008306089646816,0.09013362972855377,-0.2798705613678536,,0.3972485099443497,0.07849615640774799,0.8719532004369771,0.18616957137310886,0.24939316042550785,-0.024463322964426215,-0.13097740058119056,0.3128719178388042,-0.08307556617098522,-0.03863254540264682,-0.08576002976494101,0.1050998707063382,0.09384676456935981,0.1670063282063161
18,0.11558613271191698,0.5325347181070235,-0.15548860054112112,-0.20851684723842934,-0.2824545141660426,-0.5892608703277111,-0.5709973529206154,-0.5615376454134178,0.20541452595142695,0.20660573696934237,-0.15598487467226008,-0.6802713522626229,-0.578138305606906,0.3696413555432023,-0.24842147426375627,0.4375976407564237,,0.3394810677308159,0.5572699011255362,0.4506511826266051,0.3598454372584594,-0.18417746641575472,-0.335078441013567,-0.3055462166119369,-0.2926097603524771,-0.2577968146033074,-0.060837358828548016,0.33999916666119523,0.23363558277732333,0.26948064473328404
19,-0.11613299741046434,0.21336742222263383,0.08599549688022823,-0.3131396109535314,-0.35197592340334305,0.029428277073507036,-0.24457964455564607,-0.2627342920158964,-0.29511139478161397,-0.26964754192330753,-0.3349073217044487,0.0538736710157639,-0.16357159510390784,0.1367355750531074,-0.3132378586293385,0.20851670274782586,0.5344904307995257,,0.34168621497055307,0.3578147423062227,0.5776172721303943,0.02893287891387486,0.07253819785687254,-0.10845990346115353,-0.0552487027798092,0.20034649168805463,-0.12154465567500305,0.046891923874211816,0.06822751015832151,0.33190362028293374
20,0.23199707057279073,0.8829422145189096,-0.22888370037479344,-0.479751584072841,-0.5610328965585927,-0.5381004161716489,-0.701874018368899,-0.645989621516206,-0.2672402289104501,-0.2782184039165867,-0.4342451709104935,-0.5892856015869641,-0.6165474500659545,0.3178613183118949,-0.4919471618670668,0.8782307105317428,0.5269866809402909,0.25707484525366353,,0.3792483461369387,0.5394637537269501,-0.20719818914997545,-0.3929233723194143,-0.139036138250614,-0.4564291076359952,-0.14675790195172378,-0.12245362527616432,0.3202602816077996,0.314376438008672,0.533972675853923
21,0.2518898908737216,0.4766357242809589,0.12462436498428608,-0.6969455685614974,-0.7352602312329313,0.00039492888948189364,-0.39761395965776636,-0.448857127987375,-0.5479707757095285,-0.5531388930980832,-0.6695425256506295,-0.14142304888253987,-0.2383200694575991,0.3561240435424121,-0.7127714827528009,0.44785942242002075,0.48039933779302646,0.3189122308696062,0.4710098085047205,,0.3737713408733523,0.042327207093913244,0.24929330392988858,-0.005336632724460166,-0.22589850473606,-0.0041608134994934876,-0.15603703251370393,0.6670111735482801,0.7851839493413847,0.6390652098357684
22,-0.08372862343653398,0.37889169544369183,-0.21594162511930648,-0.2723760834802911,-0.31800502951200804,-0.43812169915796284,-0.4971069358928797,-0.5229200804820213,-0.18372478332479703,-0.1920445622261604,-0.2496763753181921,-0.38222019567791965,-0.46888794467757333,0.7659643480916163,-0.1544923955589672,0.3420853005281983,0.42575381651895405,0.5882908509092133,0.5637244199354201,0.39837516294205666,,-0.25060181522136027,-0.1734911054081294,-0.27224884476979705,-0.08025018123474492,-0.016952484857331918,-0.0029224364330531216,0.14199170837603248,0.19271985103256295,0.18065678028883791
23,0.1701360484577964,0.09386580409221179,0.7788799780491105,-0.5066008062651703,-0.5227653617324386,0.29353100731681026,-0.34848156397749896,-0.369853859732864,0.07365339465603182,0.10212301771367571,-0.5465643153282982,-0.05729256893161416,-0.23095814387192481,0.033230966696658704,-0.5485261243355843,0.12060263624480894,0.03344095525477586,0.1866927747360988,0.04544222297889389,0.1449242100442074,-0.1368938607621779,,0.7024888149493256,-0.38200194133417686,0.5840464865552357,0.5493490336812005,0.0001971113689905879,0.2190023942544389,0.442295294790509,0.5515158304462445
24,0.07161664145362556,-0.1779985491820839,0.6281401470454911,-0.5951463631600244,-0.47509958590262524,0.6810298162380778,0.3236387139520527,0.30487671669903627,-0.5388614588031819,-0.47220635630357277,-0.6339788193943412,0.542016421658368,0.3689314790122722,0.013151354506199753,-0.5828416572295576,0.0127298904251123,-0.3658145587325945,0.18613818872408106,-0.25882589058853855,0.2617859157633793,-0.20677132365299866,0.7464325090449034,,0.2713176100201764,0.485680687525919,0.6606304550009997,-0.19663695171095763,0.1797270906003552,0.4445815843305906,0.2507631451004739
25,-0.21287044491744456,0.056031435625620074,-0.24808363714751813,0.10108643647698601,0.2407634745170134,0.38736016285135677,0.6041297465284096,0.6650171355523748,-0.4252339054626846,-0.4160601507525945,0.09551550703207368,0.5582452219652632,0.6034298805689613,-0.48315894040842666,0.09074332253494677,0.1479727718438295,-0.421203013208834,-0.21651536676284544,-0.20014522843850724,0.10462690611765413,-0.3703309620532993,-0.16331420516741835,0.26588222097796466,,-0.2156822559605125,-0.01000476787579041,-0.2574360158884197,-0.03108106478683137,0.039891040763924135,-0.15150557692521915
26,-0.06421512336816959,-0.2480848678879466,0.7339794060767267,-0.27995704747777594,-0.23558165837088962,0.46433648591690935,0.06825318611546516,-0.04634719527982223,-0.003944937364530388,-0.017862219316247874,-0.29109468011350925,0.18188715992978488,0.08655425878883483,0.38782327744705813,-0.20107024573057974,-0.11697473273563785,-0.26798607194881185,-0.07838066971187607,-0.33411131051291587,-0.14930299783830692,-0.09380139591076042,0.5040192290814479,0.554896219190926,-0.1689306465593685,,0.5346778629976014,0.08867855666483104,0.1728365284224831,0.12240488342026035,-0.02431051715822985
27,-0.07697883882889278,-0.059749911839511505,0.5279536737432746,-0.3681900575571069,-0.38444691795061514,0.4526908266212668,-0.01929203653499756,0.014745107035737948,-0.2439637108304935,-0.1514315821877137,-0.3963212202797921,0.3499435552799295,-0.025801186469946114,-0.24863329347497798,-0.43827618362431275,-0.0016464852882349668,-0.34345360437633454,0.23606903856778416,-0.09287085199611944,-0.06688011154384532,-0.1631537931395366,0.560684243928375,0.5984418639668511,0.013720533372170607,0.5890213685886575,,0.007185901663176231,0.32594016922610747,0.42520183721354865,0.3562880312385516
28,-0.0517468400803458,-0.059651517355721495,-0.09997508143761502,-0.07551895397777719,-0.09702744498261007,-0.14832388574842859,-0.15442771132678645,-0.13187685786817216,-0.08007128186495982,-0.08055936514847661,-0.06564940102344785,-0.1096218941600644,-0.11733030580241355,0.7119223018207304,-0.024016474796734855,0.011337259319694759,-0.09689447978892396,-0.04656761279795796,-0.04825875359440035,-0.04675689302602093,0.30706161045481584,-0.15622641183368247,0.06149214727316754,-0.008067809107999757,0.12486223522187345,0.057770232497757146,,0.07615139895800105,0.1793564326889292,-0.0736915828190341
29,0.13636766953348878,0.2782979983207883,0.3611231537911386,-0.5681221178688571,-0.5699542126306247,0.2785219354153218,-0.23257394078448135,-0.3701031212224073,-0.26218545653381575,-0.30426097850667566,-0.5538146068463059,-0.009170482385573608,-0.22920459240163127,-0.025332082375478127,-0.5822866002752085,0.2890535753613154,0.054171294409935844,0.039540444176710654,0.17812450560797977,0.5137109796012999,-0.015800845377419215,0.24579627852908448,0.38158843851227253,-0.03321705693693988,0.4028956617177255,0.4480335641164114,0.00042646890208764,,0.7975337986731266,0.3887324033005126
30,-0.06560707317730707,0.3588261542262957,0.3675955753954967,-0.6207309095617162,-0.6231800719772502,0.3787807643940202,-0.04222655773839312,-0.10190263581775394,-0.47271693878199117,-0.46089309459677397,-0.5905634683153669,0.18788565126254064,0.011874804491350921,-0.04216366810964489,-0.6518051314543463,0.3076544653194033,-0.1440390491250163,0.005319024020365104,0.040193482207654174,0.6239012905187323,-0.12065928948544702,0.45502896512857116,0.5638985676100822,0.2665098762909921,0.10734665251878428,0.4540246611025257,-0.06866735228820575,0.7047485315415694,,0.44471455346977473
