f_id,2,3,4,5,6,7,8,9,10,11,12,13,14,15,16,17,18,19,20,21,22,23,24,25,26,27,28,29,30,1
1,0.5871430390682576,0.7885508580596791,0.195073130216038,-0.817258226162701,-0.8057366696516874,-0.7673127040932495,-0.7542419518751533,-0.665229686009766,-0.2473895820482328,-0.18215972171198946,-0.764165400757937,-0.675434275474015,-0.6606875018995622,0.5548533910876416,-0.8477753134972719,0.7849989355040776,0.8847155095704266,0.5035697299225823,0.8658099593948845,0.6541801965404007,0.6110369218987753,0.1482558823422393,-0.2216521459224201,-0.5521543129706488,-0.32478223081225366,0.00843345973673626,-0.17479140227742151,0.6056194884288165,0.5560954775762247,
2,,0.32763664026447026,-0.15517703445556186,-0.17152697896690783,-0.19527572040006458,-0.15687814240055742,-0.19520448356004083,-0.1736437124748167,-0.17021186462090965,-0.16375290014829447,-0.17779665242532117,-0.13089179023627606,-0.14327020460868445,-0.07394296862599758,-0.17785312288367194,0.20267011871569274,0.17628981171554026,-0.16862957811552537,0.6636802677186451,0.3010235057856687,-0.12200878452605823,-0.18695744465919995,-0.13496763325182215,-0.19875723673140056,-0.20043608567474447,-0.16129107322375735,-0.16212214477631104,0.1286203392521612,0.3742479244911312,0.3891045938033888
3,0.18240936453308754,,0.07198442956942774,-0.6713858400831301,-0.7069316942984036,-0.4725730035359663,-0.7069660379704847,-0.5820683498200014,-0.5354482552904902,-0.55015433654633,-0.669422329816564,-0.5143365203219581,-0.43237520274074637,0.12534683331716212,-0.660027058186988,0.9490700604053981,0.4279086672522143,0.3138479773385958,0.8967828661173782,0.534781588361713,0.41794841125230964,0.2620109279176237,-0.3011704675990603,0.23005025440536475,-0.4771589788969903,-0.2883659218522494,-0.28836606905728357,-0.03181430175525235,0.2848766738202432,0.6582732071379984
4,0.31695260106167533,-0.10850116718555802,,-0.3946028571289437,-0.4164532248045387,0.6712872996477709,-0.13637259316056394,-0.22734478762410237,-0.10757605997257946,-0.13261728284590713,-0.43894047759253074,0.2881525615551863,0.04335485099729963,0.03973011643469415,-0.3787102130200424,-0.12775635228510995,-0.15966938720694634,0.24276661275782208,-0.16671454736594038,-0.05165774787909161,-0.23640717243618226,0.45208756331594335,0.18067842200718764,-0.41227020183929586,0.674272074311447,0.5410574568097003,0.2446533197515125,0.16867766284621055,0.13674323290528279,0.4952373737814395
5,-0.5334807827799923,-0.5952660546169362,-0.4021111165858047,,0.9718206197438238,0.25360304969796055,0.7457561209991238,0.6680485456856211,0.6290560365997344,0.5915978077742138,0.988820899598903,0.4696801304771585,0.5029117916730336,-0.6038440845794182,0.9649566033301787,-0.5791443905935056,-0.6020236628711944,-0.33091873680155337,-0.5810237425306646,-0.5799686183065402,-0.411853221529761,-0.25617345381552115,-0.23027467599527718,0.35557455161620444,-0.01868879105372634,-0.11393655747831,0.031093263357921175,-0.3750527483731221,-0.5292144116413737,-0.7157183991020342
6,-0.5335347347984785,-0.6104119434312127,-0.414854099517596,0.9595789722419223,,0.26251894302555756,0.8002018275569488,0.7209744479287445,0.43173310001529086,0.386549309063271,0.9439496060434376,0.5125765758432779,0.5471434237973057,-0.4915616029008232,0.9462666186993017,-0.5753910133660898,-0.6657080934790816,-0.37514938558436395,-0.601285497266244,-0.5913900647553967,-0.3531337612835228,-0.31630877520772915,-0.10019363338963583,0.43248501733651246,0.0419305289907248,-0.11537273085223032,0.19995661352312055,-0.30083716377410674,-0.46384769057217734,-0.7559238612804242
7,-0.10148028628319761,-0.5240202548724229,0.7971864306255532,0.1276915847669774,0.09582473350480192,,0.2619022548336738,0.1667907013430594,0.19240054915830596,0.04816146476152616,0.05906108207311045,0.4197766695076337,0.42490827291338173,-0.16777229428615525,0.16924921520828717,-0.4835290485259389,-0.48197068202463544,-0.034177589030536026,-0.5609664637616949,-0.32183971574531456,-0.41541175126277974,0.519808048612513,0.1909760684849554,-0.013594901877086674,0.7975611681330775,0.17295281919146455,0.4444335168470662,-0.2839980105319464,-0.23393287354961245,0.1434651083947821
8,-0.393157224133174,-0.6994313752860921,-0.26917670847435726,0.8495273699000251,0.9027804681066788,0.6516621111505492,,0.929687636356846,0.24165971094165783,0.18867901000818565,0.845127802639917,0.7723888432449003,0.892743543612476,-0.3809696403975966,0.8259694916668447,-0.59969421808942,-0.6250667073042928,-0.510956778635345,-0.7091185975216394,-0.553027304530721,-0.4897385776137222,-0.3965377132328054,-0.023772245971748207,0.4877136290553359,0.186810806952451,-0.04374412138806494,0.03156693763259377,-0.23778081240499027,-0.5159941962947403,-0.6425124603305059
9,-0.3101042797580216,-0.6051460781488927,-0.3653404522895274,0.8129540397371706,0.8506061991402256,0.616211388177738,0.9299944107725878,,0.11608590073771152,0.19345007437281225,0.8207526570943381,0.8671495266611919,0.8860805453642486,-0.5373604291011889,0.7103425198576809,-0.5302242880258283,-0.6350297773807143,-0.3982278402828281,-0.6391088565392522,-0.5115499824080465,-0.5766397131947558,-0.24257817935599313,0.16741267168800888,0.6313030212068773,0.015391504992095961,0.11518241027632192,-0.09539410228929168,-0.3843041793955173,-0.4177984481746049,-0.5240800322415575
10,-0.15721751013059704,-0.4427956421161061,-0.14730677777287582,0.694260643903294,0.5946992333867265,-0.20891311177954885,0.3256510656245142,0.1591529343283613,,0.9717443078524752,0.6865250762328812,-0.2598780436852526,-0.17914688703483073,-0.07367003442369602,0.6591144235155908,-0.34584853992320874,0.05750527457434429,-0.27342998736667723,-0.3388320498628723,-0.5383800630811226,-0.18956466656117987,-0.17965589656699676,-0.05214188866722291,-0.3502389380867501,0.32337124507775694,0.10071363939778033,0.15358122570263766,0.014231706546087963,-0.4103288255057276,-0.5839515714785866
11,-0.0695463485402068,-0.4954154607828998,-0.07776307437106977,0.6505410540891564,0.5641966353447017,-0.16410119033354298,0.28333665900661553,0.18724033293490383,0.9747967685321725,,0.6351241314680969,-0.17754068334596762,-0.16507545959356484,-0.11425635605157192,0.5769827770459166,-0.39887679411723354,0.07453530916820628,-0.16997953909824903,-0.3691656444791327,-0.5607809215510922,-0.2225926171373449,-0.059002902540794766,0.08120759971243996,-0.3545545619784083,0.33219626012150116,0.28088139806164003,0.1020887885993782,0.01813353051593436,-0.36534110968246525,-0.5383831147252689
12,-0.46393439093766076,-0.5405737954886778,-0.45072228484879817,0.9898098494142161,0.9754556701681286,0.12036980189085955,0.7846955249882381,0.7012456154222675,0.590880705681344,0.5375479044522519,,0.3558937108662803,0.4941174697086057,-0.35079278011966153,0.9478999474766622,-0.5091053543656323,-0.4226026088870154,-0.39424960534274467,-0.46587414670628036,-0.5788026348215596,-0.2432678917714981,-0.33687445800672,-0.2011665638116682,0.3107295277849593,-0.02349866035043613,-0.17205886117535574,0.06759240633931085,-0.3654354822145456,-0.5526094024182644,-0.6679230753645178
13,-0.28988800205267307,-0.62219219990713,0.02480261520195226,0.614079062168206,0.6484977256554706,0.7750543780402726,0.78712246384572,0.8725124283919942,-0.1735408068716282,-0.052076156389526895,0.5891276814420533,,0.8665550070086095,-0.6189155964340218,0.4944398298717281,-0.5667733483531558,-0.7363214936641427,-0.07373078354875129,-0.6157801301007135,-0.405483237281006,-0.48765177739487076,0.08357359165925893,0.21495388927580583,0.5540609318661026,0.11684246956769861,0.1977328465937278,-0.09887494118622109,-0.5522226472398342,-0.3986590731899793,-0.17334748931372967
14,-0.1910854607840622,-0.44335691970198976,0.09624923084904002,0.42396880000249304,0.5588339674981996,0.7959012918580293,0.869733264798554,0.864648789449638,-0.2693033865858545,-0.29740192194657444,0.3966785626869467,0.8785555560727447,,-0.3275114588331127,0.45142094650809916,-0.44932798344287117,-0.567418668922453,-0.355308231683783,-0.5639565193773404,-0.1703633413623653,-0.4592545291574346,-0.01717485865856694,0.05189551087250144,0.6784857847678559,0.014395437826165258,-0.20376309938685044,-0.1163263250320492,-0.5073769740471397,-0.34071125819509596,-0.24435044796329697
15,0.28913481931448715,0.18548677320341844,0.25312260279648924,-0.5413210621798337,-0.4960202715707893,-0.3355058057596363,-0.49087610594165243,-0.5876634279399537,-0.06457799343347648,-0.12065103790952536,-0.46821920980611664,-0.5513347552384378,-0.5230748457423333,,-0.4458749755189848,0.16264630564548577,0.5314353338816352,0.15745868005073438,0.20602675187876374,0.33786947668180456,0.5356061904276049,-0.04665988860050474,0.09751290236980248,-0.4529224011500552,0.347466309483774,0.17414603222418612,0.4804432322885016,0.7024612071263285,0.5231339632546371,0.2068567604517494
16,-0.5666665556065689,-0.5264609459028124,-0.2567725883986971,0.9476908113524958,0.9450856261545304,0.4416881351136104,0.7170763172447707,0.5641577453737006,0.4999595605898981,0.3418362062969609,0.933875218399247,0.49560314292797014,0.5652056853921398,-0.2920542442339349,,-0.5049909144949456,-0.6253144400041291,-0.35474025870098536,-0.5439870069821655,-0.5676156285953708,-0.19024605798484728,-0.3718447508668876,-0.2813381060386111,0.3622623151156874,0.2724228873012542,-0.22105116315822304,0.13385417975077218,-0.3154882905120677,-0.6169717035148672,-0.78551337073832
17,0.19257549650046535,0.9508882256501933,-0.007699594304982682,-0.578064274200053,-0.5967659872344382,-0.4920641046216083,-0.6422107159277293,-0.5716836924175479,-0.3234917696868327,-0.3613031697308666,-0.5550406202636706,-0.5815366586619153,-0.4912834972716573,0.2940535240043496,-0.5271106892727435,,0.592864258101937,0.2867041487852888,0.9365262886666016,0.5192541459235532,0.5152760277778357,0.09796152514216883,-0.20019994143230457,0.02946771886355959,-0.33148699212393384,-0.2143452364559939,-0.14194522914223962,0.15896924336202956,0.2362780204117092,0.4988296826103882
18,0.5381023048356016,0.5062999738791928,0.10262962379366669,-0.5378046838426742,-0.5574933163347207,-0.6515074735156421,-0.6320152781215913,-0.6405711876412603,0.0015625607146365628,-0.0054945064940017385,-0.4842741474957668,-0.7379156990707232,-0.6310084578072153,0.5210551423845875,-0.5738014862612366,0.45313996193170947,,0.17361061726228288,0.5099146729576839,0.49113505754196485,0.3617797143694831,-0.05455755785692906,-0.31458574402876516,-0.3769181973006175,-0.22967694110756387,-0.1748528495728463,-0.11155078646791594,0.6660707773874273,0.461359766968493,0.6245298740726029
19,-0.07990951095929666,0.1692975223713843,-0.1091215317736749,-0.2999314532556643,-0.3391071039859681,-0.3984560811296043,-0.43870547821320116,-0.3751782134266559,-0.23225173136937904,-0.13789520943953337,-0.34734909074639186,-0.16092953965689172,-0.38303098192919527,0.19395914340908293,-0.3080261617648663,0.14414151458641122,0.664923110547699,,0.44095051218379466,0.36147619656774355,0.6478634420745638,0.030843958665609406,-0.04417625068135278,-0.23415493170056179,-0.14017817449669923,0.05469117481438124,-0.22666296240973782,-0.15677412464146423,-0.1368766954845868,0.44548078831365623
20,0.24156230587042926,0.9097089891221292,0.07695293510429568,-0.6049263558370792,-0.6397879655639491,-0.5208807290543631,-0.6687039578062857,-0.5943120705752545,-0.3798260403439335,-0.395972184200561,-0.5878224734413937,-0.5387587529729183,-0.5333555654210795,0.33039218170889817,-0.5586503436100552,0.9322418718593404,0.4528034978540736,0.5307251320283701,,0.4133368338895539,0.6140480467178453,0.14465121086118204,-0.27425849208130515,-0.24331899959107228,-0.3530038778864686,-0.11293793413428421,-0.20653349402383658,0.18498078890415592,0.26946009537045723,0.6221203720278256
21,0.3646815007991666,0.38621851945102537,0.17985678058509436,-0.6309041234617498,-0.6434157232868265,-0.19270141285334597,-0.4657878242814455,-0.4407791090776112,-0.4410864985453973,-0.4422494829425754,-0.6234217652599043,-0.2831027367288699,-0.23626271407242672,0.4945659901660855,-0.6000622043539825,0.3213458238785716,0.6051329916502004,0.32139195161010303,0.32269182955437103,,0.35963513108658773,0.06211086637474672,0.20091330670862229,-0.0440739107813628,-0.0862425502248092,-0.1770159809338372,0.05048448723904697,0.5430608723801877,0.620676305724913,0.47971575763265273
22,-0.13301743759579465,0.42479874459158484,-0.10271495665562935,-0.43170321723456073,-0.4455189109609845,-0.5776297987738985,-0.566491830693622,-0.5850594898578467,-0.35611542288001186,-0.4024767391410231,-0.4467050344801966,-0.45085682467959565,-0.5054332371472927,0.795848912998886,-0.18710074049612846,0.3981934201078938,0.38578805895029333,0.749116201691543,0.5761422563220633,0.41797740975204434,,-0.15358827702912548,-0.16019889180661728,-0.24847710199458684,0.0016053370321899019,-0.002629344603056971,-0.22340559213400613,0.1457327559658269,0.18019514141618076,0.24657903014756677
23,0.07522138180050197,0.20784873682042426,0.5764871747567277,-0.3618347799834625,-0.4185982082350401,0.08561323169493795,-0.4246342089191193,-0.3815767224842137,0.044523305813887304,0.09755853965175576,-0.42919931354240615,-0.14326519700287,-0.3025725209656993,-0.1787594720380694,-0.4125137695775589,0.04479601653450538,-0.06761112474853204,0.25670454826428735,0.09677509716575616,0.21610283516908435,-0.06799117128512067,,0.518873858913028,-0.19550479369081164,0.02022807191390541,0.22678673175220365,0.3200772763535191,-0.13319920761727455,0.5349442788506403,0.5547384206719104
24,0.1723392252779058,-0.3312103608244059,0.49432998401170414,-0.22532937045229762,-0.15946705988282295,0.44286567258340703,0.12823536484611753,0.2181819487856098,-0.09707472425402197,0.07665670545732362,-0.27430968978430936,0.3438968938885476,0.13853847734575708,-0.015389939721437651,-0.2809892179775426,-0.2886774373798078,-0.2860512513242637,0.1839933038027587,-0.44217915455366574,0.04942499765642616,-0.31383103596750916,0.5293609393050334,,0.1698995570516677,0.5065234896375093,0.7224271722244586,0.16580172655113268,-0.05050783242707735,0.24571467109164213,-0.12524952236700004
25,-0.3387699173667438,-0.0522007732227292,-0.37853359197095626,0.3352724238732602,0.3893747386977815,0.40493286576434206,0.5599914290762709,0.7006160264147487,-0.3853847655385072,-0.3233887765519219,0.3202534533876218,0.6680837950632831,0.7203814865552798,-0.542559758262493,0.28263800989362364,-0.07437971332090498,-0.5848387655017162,-0.2483036108636043,-0.3007343883192428,0.07778071225056704,-0.3919483141475686,-0.07942266472356718,0.17865755052347743,,-0.32256855822829267,-0.1349479092571768,-0.21736075320877113,-0.5163183573030379,-0.1957908158763959,-0.18617460425745325
26,-0.04370303187666269,-0.5034921948444064,0.4931637417299539,0.07371519257017145,0.11527895954784773,0.31305123816709135,0.12616859563394434,-0.05092407578175662,0.4671844583796847,0.4162994121332222,0.05590811738539658,-0.021919997401678826,-0.1154996526494616,0.39916841157967786,0.15442892457563995,-0.325786286588158,-0.10081571692344937,0.03912096279745991,-0.4332849087949511,-0.42061329403038483,0.021080257331258845,0.015686137425341973,0.5145295767941706,-0.3443607366686725,,0.5400651042633146,0.5351895031483587,0.2986613984562373,-0.18879065417662622,-0.4902616862863052
27,0.10014402755214635,-0.262059561766975,0.400156545214551,-0.0911759274257593,-0.10681242598169605,0.13142425970181815,-0.13855766495850697,-0.06802964911530274,0.33167686796563967,0.5094885945926279,-0.12187132435415649,0.044393744206723595,-0.2904130366608544,-0.06648553690531034,-0.1984841573164764,-0.22031221612968466,-0.17182220701003437,0.24864413536693253,-0.2285363962867617,-0.31271900759957316,-0.19833634749511808,0.5267143329705201,0.7086082407932853,-0.23812203887723582,0.6245765293559247,,0.257609605452485,0.21551334646496767,0.3046478507873067,-0.0017079887134709981
28,-0.14817613389691986,-0.0028617752697404075,-0.036506086370758695,-0.3498671508817275,-0.28055476562543724,-0.3198790218335932,-0.302732110042089,-0.23734766965346443,-0.3049089703406571,-0.3034693794539347,-0.1770429225765442,-0.2107294208530861,-0.24966501306563904,0.8265347869887684,-0.24695363096585,0.09159040645654348,-0.1419269100482703,0.019705719165285962,0.014368897448412632,0.012531143983659399,0.5089946128616182,-0.08935749455074538,0.38850997527181763,0.10906829461359313,0.3486501594250202,0.26413144031042224,,0.27127541686864887,0.3827000334759738,-0.0669932138214302
29,0.49768471265035985,0.05005740695771421,0.4408045991243762,-0.45172635219548063,-0.4079662946428222,0.03159157989512318,-0.3078045323096772,-0.43425502800514715,0.15725209047197586,0.11522966795605893,-0.3831819939738861,-0.36047839721510533,-0.44179436149740803,0.4519509858311601,-0.4268310810052425,0.04575402425504593,0.5097158042410855,-0.04717608313900401,0.09422707913050976,0.15607663747736122,-0.0070135468868224304,-0.11889394676445364,0.007598707044590758,-0.5673642497418834,0.4612145887187977,0.3849095264954423,0.19387166853822158,,0.5609434910173169,0.15789077343985947
30,0.36352049285121857,0.3788292594819469,0.36427311106469973,-0.6616147700858925,-0.6732916856464455,-0.09415301772402551,-0.5285359918564794,-0.4039978568762326,-0.3145202445915918,-0.20218759830138633,-0.6338581973476551,-0.24835408173322016,-0.3667952152369238,0.13516232251389748,-0.7026374406848284,0.171217447065506,0.2372092801437543,0.12048972900835175,0.22285050975032972,0.5232642122763478,-0.0788929895520285,0.6107169248941726,0.35402354333689123,-0.16245968890196716,-0.12945171179052606,0.2703998725880641,0.18065130734487367,0.4248439450212017,,0.6138716949475387
