f_id,2,3,4,5,6,7,8,9,10,11,12,13,14,15,16,17,18,19,20,21,22,23,24,25,26,27,28,29,30,1
1,0.17151529660497622,-0.35915853836403633,0.08596479553253944,-0.24946076856881572,-0.22599879598909656,0.25129353124718,0.17217472729027583,-0.021031578344580915,-0.22868043850916386,-0.20135330416471708,-0.2687368885105761,0.45378598752170607,-0.0207582166435456,-0.1177635535848407,-0.34079631109057207,-0.24386313687558103,0.21430400323506293,0.6268509345459786,0.38623649929007886,-0.006128898407898875,0.48686933623777906,0.4482945472080333,-0.12539256068539673,-0.5905193051556235,-0.14775653966789326,-0.02334386416889145,-0.3178748276688994,0.18059845261664165,-0.20700587506491175,
2,,-0.7110387800804041,0.24621123391569566,-0.2315367024206978,-0.2190228443209452,0.5215990111928092,0.4628818793660012,0.9257399348408987,-0.2278734401942586,0.20471179648182214,-0.29145598002483397,0.9761335064079097,0.4113809218441824,-0.7649215535387095,-0.6540235260386207,-0.6103243189708609,-0.6711918832332029,0.5550140115760255,-0.7656325456979471,0.04951027955468923,-0.6475900686306195,0.9735199539846917,0.7743052537255914,-0.0697507274831699,-0.19650601909135057,0.6434811388901248,-0.33725752093027284,0.27935295979122654,0.6173613397617456,0.9300967825933293
3,0.34059355681774406,,-0.3812534430834438,-0.6233707460768976,-0.6710619211245961,-0.6872480390139959,-0.7656275492808999,-0.6974107135579528,-0.514984496376031,-0.5120517809932763,-0.6693935277421765,-0.7161647985828759,-0.6853459547191467,0.48406495554150086,-0.6381718020678093,0.9885769230977939,0.749350723283589,0.0775646414196155,0.9379079287568362,0.5139100329694616,0.3683735889243188,-0.5952004975685643,-0.3278287820837691,0.48355524645043735,-0.15910654709249772,-0.034322050315032104,-0.09081279752740357,0.41914363852585124,0.4227571780723567,0.5873222344921512
4,-0.18795467307401492,-0.5954527802408687,,0.6626401430752505,0.6559823645461537,0.7483663437780667,0.7257855348828807,0.6653705980864534,0.8855826144117419,0.8876928114522561,0.6846822256876307,0.6166485003682457,0.648344437616399,-0.5177447143568603,0.6354573561979799,-0.6311053192000284,-0.4257778754543322,0.8895220136463429,-0.5122522263862104,-0.14435391268167086,-0.3115576045276114,0.8087283191600099,0.6199002522772463,-0.26843567427218584,0.47428677924722096,0.7388688084653091,-0.6877218348397474,-0.21214578799026929,-0.17831074238382572,-0.2822628223378971
5,-0.5294473042840577,-0.021934747812440092,-0.30928651400016527,,0.985090162528696,-0.535503430876497,-0.10947160968338854,0.424452488441063,0.9828959128977183,0.9832679852970692,0.9903624085617745,-0.4949619762404094,0.050538450007297064,-0.07492739276690008,0.9957425917025975,-0.1451434178008797,0.44667333454692115,-0.6202360139921081,-0.1936896720540373,-0.6798152508643844,-0.410493174304571,-0.12924353059892035,-0.5958962837961108,0.22839772932856262,0.09742891268489728,-0.3874716106370011,-0.1975133343796569,-0.7106197789689643,-0.7643351367790516,-0.7461521636545418
6,-0.5068023078601787,0.37138964474932123,-0.15589702294235153,0.9754371065532433,,-0.6767087312194628,-0.3524149299673027,0.6428458825332082,0.9917627797233489,0.9902309991876613,0.974027129756159,-0.697927589181458,0.29752158011700913,-0.07876080319514789,0.9778267849923424,0.2556870889822356,0.7943339504369303,-0.7646884420409727,0.4301230578790829,-0.4515145932455571,-0.24536394984022047,0.31572825712905095,-0.38699311001452563,0.42466252158295237,0.13370271267567535,-0.3707529168089496,-0.4457797541702506,-0.7967801878599541,-0.8340887936672825,-0.6783251452394241
7,0.9999999999999999,1.0,1.0,1.0,1.0,,1.0,1.0,1.0,1.0,1.0,1.0,1.0,-1.0,0.9999999999999999,1.0,1.0,1.0,1.0,1.0,-1.0,1.0,1.0,0.9999999999999998,1.0,1.0,-1.0,1.0,1.0,1.0
8,0.3700014941832368,-0.6428663629428772,-0.22796089585190105,0.09763266777573487,0.027664863533332973,0.7756027809904174,,-0.10313207838417449,-0.21361108683320063,-0.21557164022681485,-0.0032420025618102866,0.7974519001037248,-0.07355902607777631,-0.7222775145427054,0.09857365986982214,-0.5922500370613601,-0.7621760343551345,0.8751921510661782,-0.7368500301019338,0.3850357882824704,-0.6580286347291011,-0.3318437375732275,-0.21135600417506528,-0.3002891374371528,-0.06997319696779036,-0.11843227421747571,-0.39783237018705386,0.43726627034588517,0.49730338457172607,0.39773243574017836
9,0.06198677545650333,-0.6039553486761045,0.20420367891210944,0.6457071456065149,0.7424123553183194,0.4102456885244572,0.9092688309702276,,0.5782555283443802,0.5535211243741995,0.5800177004151845,0.3569224606728427,0.6039635159331623,-0.24078373849505375,0.6775988365675009,-0.5409822615508055,-0.5917535020370108,-0.5500655653153466,-0.7874402004264835,-0.4682664897481734,-0.7217905066012942,0.16840176121634343,0.49109883159015544,0.05418686776420767,0.2508086912750753,0.21361626292032265,-0.012424339351809977,0.09247370027795199,-0.04242147419029796,-0.7300229630328985
10,-0.13595106367849263,-0.313510655385127,-0.2612220350414338,0.9596606108793138,0.9338598151848123,-0.1469075261812416,0.7366523218418936,0.7773977824983624,,0.9999712486782754,0.9633315557863135,-0.11442277273327162,0.4536622792395353,-0.6402966581452803,0.9310009281148521,-0.3573742063610228,0.16031937087093995,-0.5111324291430366,-0.3078249533449797,-0.3336896216261396,-0.5385153617499714,0.4059344949736754,-0.2971768725419759,-0.07056681330802639,-0.500009391063948,-0.46731949467840295,-0.411380124697897,-0.5877417918813763,-0.44379548701142313,-0.43126966055312455
11,-0.12910045322729458,-0.31161072309748605,-0.2570921714027512,0.9585666233719925,0.9318148798631359,-0.14505006900138762,0.7349884472889764,0.7749062976374119,0.999971364953836,,0.9618329479091773,-0.11413343556252875,0.45231990361725716,-0.6415839141291593,0.9291766534488809,-0.3556897187719077,0.16468499097755673,-0.5115362384786484,-0.3056706194683898,-0.33430097872341547,-0.5420685824128668,0.3997472562076232,-0.3052733383205273,-0.07329981279545938,-0.4980482707450822,-0.4648997535968309,-0.41124747658448246,-0.5827431229004087,-0.44593308667076337,-0.42575425085892915
12,-0.5967266079908287,-0.16692686813439783,-0.4536385165258672,0.9903614912321412,0.9425870598876496,-0.27024614823990945,0.16810374668937988,0.1363271448773754,0.9675638596152892,0.9595243123098657,,-0.17005435729552687,-0.13836384945955849,-0.9518303795860181,0.9592424800715644,-0.3349126964629303,-0.0413131832582303,-0.24351801966399234,-0.24538375870146067,-0.3064621858625023,-0.5720881287245061,-0.12091421782816347,-0.5740958577457305,-0.00015426985766109347,-0.541947906263498,-0.15749675415739373,-0.15189696340686942,-0.07616006274953468,-0.4565472775995567,-0.4671087570483752
13,0.9991777387483975,-0.5043595557667029,-0.9120225863920695,-0.6911579716335963,-0.7649612618024133,0.9999516354637148,0.9991514368294636,-0.8730508043357446,-0.6940773748851488,-0.6921304741281264,-0.6918062358001966,,-0.8967863292658034,-0.8879969622313615,-0.6927791619568477,-0.4447950029192316,-0.8422766224885092,0.9999326740503118,-0.7197746311007003,0.996529096263292,-0.8150404877437261,-0.8965065606375537,-0.7755767462412522,-0.5238941217911401,-0.9678013955751208,-0.9003996235993024,-0.7967210225223194,0.9999968285156299,0.9978834032032384,0.9785602383689936
14,0.9999999999999998,-1.0,1.0,1.0,1.0,1.0,1.0,0.9999999999999998,1.0,1.0,1.0,0.9999999999999999,,1.0,1.0,-1.0,-1.0,1.0,-1.0,1.0,1.0,1.0,0.9999999999999999,-1.0,1.0,1.0,0.9999999999999999,0.9999999999999999,1.0,-1.0
15,0.03453451543373831,0.04902403838246938,0.29577200980664187,-0.5786694918440634,-0.4591129996662695,0.04345872638310533,-0.14813564198974571,-0.1575563015016288,-0.5246359384811679,-0.616489817426848,-0.5347486565592359,-0.07623171085504588,0.16019699899287443,,-0.312085194231575,0.06270247589199018,0.10573179748258998,0.05382040261430143,0.06769818132935645,0.21450639567985763,0.6127806233776372,-0.03780693678779001,0.2280577273797807,-0.09870526904207466,0.5293171486236644,-0.03171203269507861,0.2561876647758927,0.06617200083199637,0.19343991819318918,-0.04884995705052653
16,-0.3025135863996675,0.020462517810456715,-0.3085818468759658,0.9942493111393172,0.9959847521852857,-0.501881732861365,0.06945815701816771,0.8526064568310892,0.9993085649991403,0.9990176697974251,0.9988753525843677,-0.5212817959179334,0.3466197970635424,-0.2311170184778193,,-0.06830248498913183,0.6497115495997013,-0.6375444521070748,0.14165071293597686,-0.21230876577417157,-0.08033782920862254,0.5584379474718041,0.01204759718466153,0.0920592413552328,-0.5283046769878663,-0.48226241788815605,-0.33430519844505624,-0.6684170314993998,-0.2929109972987489,-0.522932738093631
17,0.07262249576339852,0.9901501821927469,0.0295121300680542,-0.5051344337245023,-0.5010529932885821,-0.5081041631838292,-0.612792414698716,-0.40904584870747995,-0.40452024446120327,-0.4035285298075637,-0.5129927734083557,-0.5702102954820063,-0.3737516712344706,0.40553469900420636,-0.5177088162963699,,0.7419531425977925,-0.19390964973732827,0.8880286183173576,0.13654484659995592,0.2741469511656649,-0.15925814880879496,-0.14334609456262326,0.6666748410010019,0.07457386289492685,0.11663440091878596,0.04217576638948661,0.056394937540776846,0.051726354101177985,0.225965579609123
18,0.29157794614284227,0.8142866300037079,-0.030285348694904846,-0.44314647580272304,-0.346893633127181,-0.7226679339162088,-0.7490869012153878,-0.3819812060051955,-0.010792903688303213,-0.011316068223677034,-0.30614016616835715,-0.8493595364461606,-0.4326540030695534,0.5446799319267319,-0.48607190776703857,0.7879380649333674,,-0.5371249070773279,0.8457978281072,0.33592178992765653,0.22928731814786096,0.029246403044209446,-0.41151402156003525,0.21950886357685995,-0.21631868741936566,-0.2833032632971271,-0.3132424948882109,-0.010070493506619371,-0.03459282115256124,0.2881340368400904
19,0.690887986818143,-0.6086551400799671,0.31908632144844096,-0.6221458134369968,-0.6308115350762109,0.9130726044802704,0.8966930374769199,0.22147480746608283,-0.672486692266812,-0.6834835669180617,-0.6633594606395121,0.8922697734745106,0.3386401262501735,-0.42038855958745125,-0.6378688521843914,-0.504506584248434,-0.7408585875369513,,-0.4634195822524978,0.8071483071665736,-0.033868602184462304,0.39946033215520793,0.5019339300085808,-0.5357543412057315,-0.05062965249755802,0.20981880363003524,-0.24004801928937192,0.7871770615363943,0.8567791998220625,0.785209097004662
20,0.3220204050246589,0.998753997638786,0.28727404507363696,-0.5966884163604815,-0.5966874754277358,-0.6261500847847998,-0.7317226155433278,-0.6321995921974293,-0.311882716785288,-0.42050229335157896,-0.5422288841617524,-0.8542143098513317,-0.506315210433703,0.798125161124231,-0.4026064569816965,0.9926507049084708,0.8867486025024348,-0.3337902072479706,,0.5516843498028113,0.6479270451344609,-0.2934310752751639,-0.210596712276653,-0.412428437390425,0.030496507531028172,-0.1374720673815255,0.16721060080729977,0.4285349076209538,0.28775875706496334,0.3328826546639212
21,0.5168079803987027,-0.3881876817001948,-0.29907978131013646,-0.15851044058598518,-0.006790504184466251,0.3026202347140372,0.6882838093577637,-0.18825679395351802,-0.06208449358847257,-0.17518287093970053,-0.16273502498480363,0.2185414340324252,-0.07589058030739504,0.24728425627590134,-0.04811905380669068,-0.35849086947417863,-0.2604558198456486,0.30384020183578286,-0.2203875599925249,,0.3523009363416516,0.14963996070513186,0.1276944623794355,-0.44250993164896957,-0.31687195664084,-0.40235809911750064,-0.0280618790325724,0.23301662623231834,0.5591218417075703,0.5079833821707007
22,-0.23903145054154273,0.36612439914121886,-0.16421516670844105,-0.24116302804595668,-0.16024197409907193,-0.1950606542702491,-0.15363314757031787,-0.6003834967608381,-0.17120255833979692,-0.39080487709485356,-0.18918960741005675,-0.43195009005682694,-0.2571277739760818,0.8526950513537395,0.05345078512512269,0.38104842437326525,0.2624235017027664,0.03539580537455356,0.5085483342062832,0.578221748773392,,-0.2704417433161219,-0.09299773132815825,-0.16972361280756254,-0.08592068393692553,-0.41907271795947065,0.21085689828896848,0.31955055930112386,0.287907557030052,-0.21070452956295127
23,0.30046537231306325,-0.28357350528447944,0.9630585857537389,0.06507244876674145,0.012564914384163295,0.47589659271810736,-0.04670625370008619,-0.15038924944938148,0.9656342841220377,0.9653837727146755,-0.009803676514398063,0.0019241426362580638,-0.1500620254523728,-0.4738702959606762,-0.1178910256680028,-0.24310572702526434,0.0515624626556771,0.09573325348721884,-0.32001648759971246,-0.18754446595104413,-0.46676730948296097,,0.8843850514870465,-0.33504821257364714,0.7894849870103329,0.54618596545385,-0.035917665635880835,0.2676111050668579,0.014546085287029276,0.18883778370577364
24,-0.8851676242626731,-0.8977528196535651,0.8614185181170334,0.9941314240775201,0.9932651893762264,0.9998751401550934,0.9999588173435817,0.9888379002057709,0.9539583243028452,0.9531261414621583,0.9999072237043003,0.9881519356896595,0.9825427627649167,-0.8571683529762872,0.9924360557632433,-0.8419239844600415,-0.9993539748410849,0.9589071505978812,-0.9967682856880977,-0.8102623086727743,-0.5722664280441803,0.999962071880753,,0.11446294392472467,0.9563234300170744,0.9988765086826262,0.9697254883573496,-0.8356897722717491,-0.7519872883248866,-0.94333686537867
25,-1.0,-1.0,1.0,1.0,1.0,1.0,1.0,1.0,1.0,0.9999999999999999,1.0,1.0,1.0,-1.0,1.0,-1.0,-1.0,0.9999999999999999,-1.0,-1.0,-1.0,1.0,1.0,,1.0,1.0,1.0,-1.0,-1.0,-1.0
26,-0.5004392556578694,-0.36002592343105677,-0.15845666081884713,0.14560394229176832,0.2611246140900695,0.15517519241143218,0.4174915784625657,0.4936106371482758,0.01935641139247135,0.017400063113248043,0.18553834845625983,0.2830614941897811,0.2843923250843856,0.24419094131392383,0.23182322185519433,-0.14396112161590113,-0.344522766576808,0.013953579562006824,-0.42851075788056714,-0.27486458672800573,0.08579739642437612,-0.3503724115608422,0.5012964520281167,0.3711749441523433,,0.6577844787403615,0.15812745436138664,-0.022698385197037485,-0.35375340221975016,-0.7030462505283568
27,-0.8538274990371972,-0.11760092042920633,0.9461654048311364,0.7792820911180045,0.8276779041194734,-0.5962050540837533,-0.5141050692464446,0.9030978268210368,0.9193426929587141,0.918986504390007,0.8568127244806053,-0.4149796900707914,0.8971616057054134,0.21156592118276718,0.7702859718555016,-0.14223545954831063,-0.02550924738094129,-0.7302212400696786,-0.08172304742408265,-0.8464766845618774,0.6056909612120079,0.9848830087856267,0.9234946657506033,0.27734076110332995,0.9494595944439818,,0.042873824902722846,-0.9001704017337202,-0.8891963742247615,-0.9089145549960813
28,-0.26746135661771264,-0.15934974928571477,0.21309250142566183,0.4423056754855619,0.3273754217011424,-0.23232374817521184,-0.25116040405792983,-0.04421672026763779,0.8950494213343664,0.8712135421837801,0.44290987953674477,-0.3451967750321694,-0.16806434960255023,-0.05937313386416565,0.38683337856871725,-0.23128821183724302,-0.15897119472559673,-0.3992641402828092,-0.2431767379877492,-0.3252201365119607,-0.19262212629792663,0.43625435743786345,0.43503216696015357,-0.18021059835774533,0.49463534548328336,0.7751656077116984,,0.18190636297853413,0.14590395537986622,-0.32503486279132154
29,0.8048066503482634,-0.9448207314181829,0.7753437058646921,0.8595672768677964,0.8504281506763792,0.8389928241252552,0.8843461664425535,0.756749953703792,0.9015849766251549,0.9031458900820366,0.9402275126603469,0.860964613830868,0.697871061724017,0.16128662622959955,0.9043996174951513,-0.9614403661203792,-0.8084831133373114,0.9466057891414094,-0.9146455905266793,0.99230052546354,0.7228463479138044,0.79160560318834,0.9891909751541501,-0.9521575980705879,0.872456269175959,0.9764048321439172,-0.17381832519165918,,0.9703275007781524,0.046320557732403844
30,0.2593900391102518,-0.11803899355252523,0.2811536327529688,-0.5940129375269381,-0.661050324080672,0.5868067663398238,0.2533778274339047,-0.3593595824808862,-0.4474247233236297,-0.47076934583696417,-0.5665510804775891,0.40533517245705386,-0.21539797453612541,-0.02769055295353784,-0.6212970887450675,-0.12763283783820878,-0.2250085328320406,0.5650547492178776,-0.09588236977608378,0.611667233141519,0.03071683006131365,0.030030564065975374,0.27001985564761755,-0.36614731077253904,0.06756819133929581,0.4255699640830015,0.13934870887577622,0.9417284018214814,,0.7273339001129643
